digraph Tree {
node [shape=box, style="filled, rounded", color="black", fontname="helvetica"] ;
edge [fontname="helvetica"] ;
0 [label="Offer To 1st Close <= 19.2\ngini = 0.5\nsamples = 306\nvalue = [260, 231]\nclass = y[0]", fillcolor="#fcf1e9"] ;
1 [label="Offer Size (M).1 <= 714.2\ngini = 0.3\nsamples = 178\nvalue = [236, 54]\nclass = y[0]", fillcolor="#eb9e66"] ;
0 -> 1 [labeldistance=2.5, labelangle=45, headlabel="True"] ;
2 [label="Offer Price <= 15.2\ngini = 0.3\nsamples = 160\nvalue = [222, 39]\nclass = y[0]", fillcolor="#ea975c"] ;
1 -> 2 ;
3 [label="Shares Outstanding (M) <= 39.6\ngini = 0.1\nsamples = 106\nvalue = [173, 10]\nclass = y[0]", fillcolor="#e78844"] ;
2 -> 3 ;
4 [label="Instit Owner (% Shares Out) <= 19.6\ngini = 0.0\nsamples = 77\nvalue = [130, 3]\nclass = y[0]", fillcolor="#e6843e"] ;
3 -> 4 ;
5 [label="Instit Owner (Shares Held) <= 3165465.0\ngini = 0.1\nsamples = 26\nvalue = [42, 3]\nclass = y[0]", fillcolor="#e78a47"] ;
4 -> 5 ;
6 [label="gini = 0.0\nsamples = 21\nvalue = [33, 0]\nclass = y[0]", fillcolor="#e58139"] ;
5 -> 6 ;
7 [label="Market Cap at Offer (M) <= 146.8\ngini = 0.4\nsamples = 5\nvalue = [9, 3]\nclass = y[0]", fillcolor="#eeab7b"] ;
5 -> 7 ;
8 [label="gini = 0.0\nsamples = 1\nvalue = [0, 2]\nclass = y[1]", fillcolor="#399de5"] ;
7 -> 8 ;
9 [label="Cash Flow per Share <= 3.3\ngini = 0.2\nsamples = 4\nvalue = [9, 1]\nclass = y[0]", fillcolor="#e88f4f"] ;
7 -> 9 ;
10 [label="gini = 0.0\nsamples = 3\nvalue = [9, 0]\nclass = y[0]", fillcolor="#e58139"] ;
9 -> 10 ;
11 [label="gini = 0.0\nsamples = 1\nvalue = [0, 1]\nclass = y[1]", fillcolor="#399de5"] ;
9 -> 11 ;
12 [label="gini = 0.0\nsamples = 51\nvalue = [88, 0]\nclass = y[0]", fillcolor="#e58139"] ;
4 -> 12 ;
13 [label="Offer Size (M).1 <= 125.2\ngini = 0.2\nsamples = 29\nvalue = [43, 7]\nclass = y[0]", fillcolor="#e99659"] ;
3 -> 13 ;
14 [label="Instit Owner (Shares Held) <= 183499352.0\ngini = 0.5\nsamples = 5\nvalue = [4, 5]\nclass = y[1]", fillcolor="#d7ebfa"] ;
13 -> 14 ;
15 [label="Offer Price <= 8.8\ngini = 0.3\nsamples = 4\nvalue = [4, 1]\nclass = y[0]", fillcolor="#eca06a"] ;
14 -> 15 ;
16 [label="gini = 0.0\nsamples = 1\nvalue = [0, 1]\nclass = y[1]", fillcolor="#399de5"] ;
15 -> 16 ;
17 [label="gini = 0.0\nsamples = 3\nvalue = [4, 0]\nclass = y[0]", fillcolor="#e58139"] ;
15 -> 17 ;
18 [label="gini = 0.0\nsamples = 1\nvalue = [0, 4]\nclass = y[1]", fillcolor="#399de5"] ;
14 -> 18 ;
19 [label="Industry Group <= 6.5\ngini = 0.1\nsamples = 24\nvalue = [39, 2]\nclass = y[0]", fillcolor="#e68743"] ;
13 -> 19 ;
20 [label="Industry Group <= 4.0\ngini = 0.4\nsamples = 2\nvalue = [1, 2]\nclass = y[1]", fillcolor="#9ccef2"] ;
19 -> 20 ;
21 [label="gini = 0.0\nsamples = 1\nvalue = [1, 0]\nclass = y[0]", fillcolor="#e58139"] ;
20 -> 21 ;
22 [label="gini = 0.0\nsamples = 1\nvalue = [0, 2]\nclass = y[1]", fillcolor="#399de5"] ;
20 -> 22 ;
23 [label="gini = 0.0\nsamples = 22\nvalue = [38, 0]\nclass = y[0]", fillcolor="#e58139"] ;
19 -> 23 ;
24 [label="Offer To 1st Close <= 5.7\ngini = 0.5\nsamples = 54\nvalue = [49, 29]\nclass = y[0]", fillcolor="#f4ccae"] ;
2 -> 24 ;
25 [label="Cash Flow per Share <= 3.9\ngini = 0.3\nsamples = 38\nvalue = [43, 10]\nclass = y[0]", fillcolor="#eb9e67"] ;
24 -> 25 ;
26 [label="Cash Flow per Share <= 3.4\ngini = 0.4\nsamples = 30\nvalue = [28, 10]\nclass = y[0]", fillcolor="#eeae80"] ;
25 -> 26 ;
27 [label="Instit Owner (Shares Held) <= 188383.5\ngini = 0.3\nsamples = 27\nvalue = [27, 6]\nclass = y[0]", fillcolor="#eb9d65"] ;
26 -> 27 ;
28 [label="gini = 0.0\nsamples = 1\nvalue = [0, 1]\nclass = y[1]", fillcolor="#399de5"] ;
27 -> 28 ;
29 [label="Offer Size (M).1 <= 245.7\ngini = 0.3\nsamples = 26\nvalue = [27, 5]\nclass = y[0]", fillcolor="#ea985e"] ;
27 -> 29 ;
30 [label="Offer Size (M) <= 230.6\ngini = 0.4\nsamples = 17\nvalue = [17, 5]\nclass = y[0]", fillcolor="#eda673"] ;
29 -> 30 ;
31 [label="Cash Flow per Share <= 0.4\ngini = 0.3\nsamples = 16\nvalue = [17, 3]\nclass = y[0]", fillcolor="#ea975c"] ;
30 -> 31 ;
32 [label="Market Cap at Offer (M) <= 633.4\ngini = 0.5\nsamples = 7\nvalue = [5, 3]\nclass = y[0]", fillcolor="#f5cdb0"] ;
31 -> 32 ;
33 [label="Offer To 1st Close <= -0.7\ngini = 0.5\nsamples = 5\nvalue = [2, 3]\nclass = y[1]", fillcolor="#bddef6"] ;
32 -> 33 ;
34 [label="gini = 0.0\nsamples = 2\nvalue = [2, 0]\nclass = y[0]", fillcolor="#e58139"] ;
33 -> 34 ;
35 [label="gini = 0.0\nsamples = 3\nvalue = [0, 3]\nclass = y[1]", fillcolor="#399de5"] ;
33 -> 35 ;
36 [label="gini = 0.0\nsamples = 2\nvalue = [3, 0]\nclass = y[0]", fillcolor="#e58139"] ;
32 -> 36 ;
37 [label="gini = 0.0\nsamples = 9\nvalue = [12, 0]\nclass = y[0]", fillcolor="#e58139"] ;
31 -> 37 ;
38 [label="gini = 0.0\nsamples = 1\nvalue = [0, 2]\nclass = y[1]", fillcolor="#399de5"] ;
30 -> 38 ;
39 [label="gini = 0.0\nsamples = 9\nvalue = [10, 0]\nclass = y[0]", fillcolor="#e58139"] ;
29 -> 39 ;
40 [label="Industry Group <= 42.0\ngini = 0.3\nsamples = 3\nvalue = [1, 4]\nclass = y[1]", fillcolor="#6ab6ec"] ;
26 -> 40 ;
41 [label="gini = 0.0\nsamples = 2\nvalue = [0, 4]\nclass = y[1]", fillcolor="#399de5"] ;
40 -> 41 ;
42 [label="gini = 0.0\nsamples = 1\nvalue = [1, 0]\nclass = y[0]", fillcolor="#e58139"] ;
40 -> 42 ;
43 [label="gini = 0.0\nsamples = 8\nvalue = [15, 0]\nclass = y[0]", fillcolor="#e58139"] ;
25 -> 43 ;
44 [label="Market Cap at Offer (M) <= 259.1\ngini = 0.4\nsamples = 16\nvalue = [6, 19]\nclass = y[1]", fillcolor="#78bced"] ;
24 -> 44 ;
45 [label="Profit Margin <= 9.4\ngini = 0.5\nsamples = 5\nvalue = [5, 3]\nclass = y[0]", fillcolor="#f5cdb0"] ;
44 -> 45 ;
46 [label="gini = 0.0\nsamples = 2\nvalue = [0, 3]\nclass = y[1]", fillcolor="#399de5"] ;
45 -> 46 ;
47 [label="gini = 0.0\nsamples = 3\nvalue = [5, 0]\nclass = y[0]", fillcolor="#e58139"] ;
45 -> 47 ;
48 [label="Instit Owner (Shares Held) <= 42404350.0\ngini = 0.1\nsamples = 11\nvalue = [1, 16]\nclass = y[1]", fillcolor="#45a3e7"] ;
44 -> 48 ;
49 [label="gini = 0.0\nsamples = 8\nvalue = [0, 12]\nclass = y[1]", fillcolor="#399de5"] ;
48 -> 49 ;
50 [label="Instit Owner (Shares Held) <= 75730000.0\ngini = 0.3\nsamples = 3\nvalue = [1, 4]\nclass = y[1]", fillcolor="#6ab6ec"] ;
48 -> 50 ;
51 [label="gini = 0.0\nsamples = 1\nvalue = [1, 0]\nclass = y[0]", fillcolor="#e58139"] ;
50 -> 51 ;
52 [label="gini = 0.0\nsamples = 2\nvalue = [0, 4]\nclass = y[1]", fillcolor="#399de5"] ;
50 -> 52 ;
53 [label="Instit Owner (% Shares Out) <= 73.5\ngini = 0.5\nsamples = 18\nvalue = [14, 15]\nclass = y[1]", fillcolor="#f2f8fd"] ;
1 -> 53 ;
54 [label="gini = 0.0\nsamples = 6\nvalue = [0, 8]\nclass = y[1]", fillcolor="#399de5"] ;
53 -> 54 ;
55 [label="Cash Flow per Share <= 6.4\ngini = 0.4\nsamples = 12\nvalue = [14, 7]\nclass = y[0]", fillcolor="#f2c09c"] ;
53 -> 55 ;
56 [label="Market Cap at Offer (M) <= 2762.1\ngini = 0.5\nsamples = 8\nvalue = [6, 7]\nclass = y[1]", fillcolor="#e3f1fb"] ;
55 -> 56 ;
57 [label="gini = 0.0\nsamples = 3\nvalue = [0, 6]\nclass = y[1]", fillcolor="#399de5"] ;
56 -> 57 ;
58 [label="Offer Price <= 32.0\ngini = 0.2\nsamples = 5\nvalue = [6, 1]\nclass = y[0]", fillcolor="#e9965a"] ;
56 -> 58 ;
59 [label="gini = 0.0\nsamples = 4\nvalue = [6, 0]\nclass = y[0]", fillcolor="#e58139"] ;
58 -> 59 ;
60 [label="gini = 0.0\nsamples = 1\nvalue = [0, 1]\nclass = y[1]", fillcolor="#399de5"] ;
58 -> 60 ;
61 [label="gini = 0.0\nsamples = 4\nvalue = [8, 0]\nclass = y[0]", fillcolor="#e58139"] ;
55 -> 61 ;
62 [label="Profit Margin <= -0.7\ngini = 0.2\nsamples = 128\nvalue = [24, 177]\nclass = y[1]", fillcolor="#54aae9"] ;
0 -> 62 [labeldistance=2.5, labelangle=-45, headlabel="False"] ;
63 [label="Offer Size (M).1 <= 59.7\ngini = 0.1\nsamples = 72\nvalue = [4, 108]\nclass = y[1]", fillcolor="#40a1e6"] ;
62 -> 63 ;
64 [label="gini = 0.0\nsamples = 2\nvalue = [3, 0]\nclass = y[0]", fillcolor="#e58139"] ;
63 -> 64 ;
65 [label="Industry Group <= 6.0\ngini = 0.0\nsamples = 70\nvalue = [1, 108]\nclass = y[1]", fillcolor="#3b9ee5"] ;
63 -> 65 ;
66 [label="Instit Owner (Shares Held) <= 69693.5\ngini = 0.0\nsamples = 27\nvalue = [1, 39]\nclass = y[1]", fillcolor="#3ea0e6"] ;
65 -> 66 ;
67 [label="Offer Size (M).1 <= 63.1\ngini = 0.4\nsamples = 3\nvalue = [1, 3]\nclass = y[1]", fillcolor="#7bbeee"] ;
66 -> 67 ;
68 [label="gini = 0.0\nsamples = 1\nvalue = [0, 2]\nclass = y[1]", fillcolor="#399de5"] ;
67 -> 68 ;
69 [label="Market Cap at Offer (M) <= 481.2\ngini = 0.5\nsamples = 2\nvalue = [1, 1]\nclass = y[0]", fillcolor="#ffffff"] ;
67 -> 69 ;
70 [label="gini = 0.0\nsamples = 1\nvalue = [1, 0]\nclass = y[0]", fillcolor="#e58139"] ;
69 -> 70 ;
71 [label="gini = 0.0\nsamples = 1\nvalue = [0, 1]\nclass = y[1]", fillcolor="#399de5"] ;
69 -> 71 ;
72 [label="gini = 0.0\nsamples = 24\nvalue = [0, 36]\nclass = y[1]", fillcolor="#399de5"] ;
66 -> 72 ;
73 [label="gini = 0.0\nsamples = 43\nvalue = [0, 69]\nclass = y[1]", fillcolor="#399de5"] ;
65 -> 73 ;
74 [label="Offer Price <= 15.5\ngini = 0.3\nsamples = 56\nvalue = [20, 69]\nclass = y[1]", fillcolor="#72b9ed"] ;
62 -> 74 ;
75 [label="Offer To 1st Close <= 41.9\ngini = 0.4\nsamples = 19\nvalue = [20, 9]\nclass = y[0]", fillcolor="#f1ba92"] ;
74 -> 75 ;
76 [label="Industry Group <= 2.5\ngini = 0.2\nsamples = 13\nvalue = [18, 3]\nclass = y[0]", fillcolor="#e9965a"] ;
75 -> 76 ;
77 [label="gini = 0.0\nsamples = 1\nvalue = [0, 2]\nclass = y[1]", fillcolor="#399de5"] ;
76 -> 77 ;
78 [label="Industry Sector <= 2.0\ngini = 0.1\nsamples = 12\nvalue = [18, 1]\nclass = y[0]", fillcolor="#e68844"] ;
76 -> 78 ;
79 [label="gini = 0.0\nsamples = 7\nvalue = [11, 0]\nclass = y[0]", fillcolor="#e58139"] ;
78 -> 79 ;
80 [label="Cash Flow per Share <= 10.5\ngini = 0.2\nsamples = 5\nvalue = [7, 1]\nclass = y[0]", fillcolor="#e99355"] ;
78 -> 80 ;
81 [label="gini = 0.0\nsamples = 4\nvalue = [7, 0]\nclass = y[0]", fillcolor="#e58139"] ;
80 -> 81 ;
82 [label="gini = 0.0\nsamples = 1\nvalue = [0, 1]\nclass = y[1]", fillcolor="#399de5"] ;
80 -> 82 ;
83 [label="Market Cap at Offer (M) <= 1722.3\ngini = 0.4\nsamples = 6\nvalue = [2, 6]\nclass = y[1]", fillcolor="#7bbeee"] ;
75 -> 83 ;
84 [label="gini = 0.0\nsamples = 4\nvalue = [0, 6]\nclass = y[1]", fillcolor="#399de5"] ;
83 -> 84 ;
85 [label="gini = 0.0\nsamples = 2\nvalue = [2, 0]\nclass = y[0]", fillcolor="#e58139"] ;
83 -> 85 ;
86 [label="gini = 0.0\nsamples = 37\nvalue = [0, 60]\nclass = y[1]", fillcolor="#399de5"] ;
74 -> 86 ;
}